genomestart 1
trait 1 0.1 0 0 0 0 0 0 0
trait 2 0.2 0 0 0 0 0 0 0
trait 3 0.3 0 0 0 0 0 0 0
node 1 0 1 1
node 2 0 1 1
node 3 0 1 1
node 4 0 1 1
node 5 0 1 1
node 6 0 1 1
node 7 0 1 1
node 8 0 1 1
node 9 0 1 1
node 10 0 1 1
node 11 0 1 1
node 12 0 1 1
node 13 0 1 1
node 14 0 0 2
node 15 0 0 2
node 16 0 0 2
gene 1 1 14 0.0 0 1 0 1
gene 1 2 14 0.0 0 2 0 1
gene 1 3 14 0.0 0 3 0 1
gene 1 4 14 0.0 0 4 0 1
gene 1 5 14 0.0 0 5 0 1
gene 1 6 14 0.0 0 6 0 1
gene 1 7 14 0.0 0 7 0 1
gene 1 8 14 0.0 0 8 0 1
gene 1 9 14 0.0 0 9 0 1
gene 1 10 14 0.0 0 10 0 1
gene 1 11 14 0.0 0 11 0 1
gene 1 12 14 0.0 0 12 0 1
gene 1 13 14 0.0 0 13 0 1
gene 1 1 15 0.0 0 14 0 1
gene 1 2 15 0.0 0 15 0 1
gene 1 3 15 0.0 0 16 0 1
gene 1 4 15 0.0 0 17 0 1
gene 1 5 15 0.0 0 18 0 1
gene 1 6 15 0.0 0 19 0 1
gene 1 7 15 0.0 0 20 0 1
gene 1 8 15 0.0 0 21 0 1
gene 1 9 15 0.0 0 22 0 1
gene 1 10 15 0.0 0 23 0 1
gene 1 11 15 0.0 0 24 0 1
gene 1 12 15 0.0 0 25 0 1
gene 1 13 15 0.0 0 26 0 1
gene 1 1 16 0.0 0 27 0 1
gene 1 2 16 0.0 0 28 0 1
gene 1 3 16 0.0 0 29 0 1
gene 1 4 16 0.0 0 30 0 1
gene 1 5 16 0.0 0 31 0 1
gene 1 6 16 0.0 0 32 0 1
gene 1 7 16 0.0 0 33 0 1
gene 1 8 16 0.0 0 34 0 1
gene 1 9 16 0.0 0 35 0 1
gene 1 10 16 0.0 0 36 0 1
gene 1 11 16 0.0 0 37 0 1
gene 1 12 16 0.0 0 38 0 1
gene 1 13 16 0.0 0 39 0 1
genomeend 1